3500.0  5.0  0.0 3.55870 1.58309 -0.30144 0.16710 -0.00414 -0.00608 0.02097 0.03583 0.02309 0.02164 0.00660 -0.00639 -0.00901 0.03547 0.03601 -0.01912 
3750.0  5.0  0.0 2.33295 0.87145 -0.22684 0.10605 -0.00680 -0.00764 0.01234 0.02382 0.01284 0.01295 0.00463 -0.00433 -0.00629 0.02603 0.01920 -0.01303 
4000.0  5.0  0.0 1.40107 0.37371 -0.15220 0.05844 -0.00803 -0.00914 0.00512 0.01417 0.00505 0.00584 0.00290 -0.00204 -0.00334 0.01782 0.00652 -0.00609 
4250.0  5.0  0.0 0.70105 0.05741 -0.08609 0.02805 -0.00620 -0.00931 0.00015 0.00806 0.00158 0.00193 0.00191 -0.00042 -0.00121 0.01281 -0.00141 -0.00244 
4500.0  5.0  0.0 0.20268 -0.03415 -0.02965 0.00993 -0.00341 -0.00820 -0.00210 0.00477 0.00094 0.00053 0.00144 0.00016 -0.00028 0.00823 -0.00386 -0.00024 
4750.0  5.0  0.0 -0.09907 0.00577 0.00113 0.00167 -0.00052 -0.00570 -0.00201 0.00184 0.00100 0.00057 0.00094 0.00023 -0.00000 0.00546 -0.00406 0.00044 
5000.0  5.0  0.0 -0.22301 0.03902 0.01437 0.00271 0.00126 -0.00249 -0.00137 -0.00055 0.00090 0.00080 0.00042 0.00015 0.00002 0.00203 -0.00420 0.00050 
5250.0  5.0  0.0 -0.16612 0.02195 0.01356 0.00219 0.00146 0.00077 -0.00077 -0.00221 0.00037 0.00060 -0.00009 0.00002 -0.00002 -0.00142 -0.00342 -0.00011 
5500.0  5.0  0.0 -0.03040 0.00371 0.00845 -0.00139 0.00097 0.00373 -0.00004 -0.00286 -0.00022 0.00013 -0.00051 -0.00011 -0.00011 -0.00322 -0.00283 -0.00044 
5750.0  5.0  0.0 0.07523 0.00105 0.00362 -0.00574 0.00044 0.00601 0.00064 -0.00273 -0.00073 -0.00037 -0.00085 -0.00022 -0.00019 -0.00558 0.00044 -0.00054 
6000.0  5.0  0.0 0.11712 0.00404 0.00006 -0.00929 0.00013 0.00744 0.00120 -0.00231 -0.00114 -0.00084 -0.00107 -0.00031 -0.00023 -0.00673 0.00133 -0.00043 
6250.0  5.0  0.0 0.11878 0.00468 -0.00211 -0.01134 0.00011 0.00805 0.00159 -0.00176 -0.00145 -0.00122 -0.00124 -0.00035 -0.00025 -0.00581 0.00377 -0.00014 
6500.0  5.0  0.0 0.10338 0.00167 -0.00289 -0.01166 0.00031 0.00795 0.00184 -0.00121 -0.00167 -0.00148 -0.00131 -0.00038 -0.00024 -0.00698 0.00368 -0.00070 
6750.0  5.0  0.0 0.08251 -0.00378 -0.00248 -0.01038 0.00057 0.00728 0.00194 -0.00075 -0.00176 -0.00162 -0.00131 -0.00038 -0.00019 -0.00633 0.00502 -0.00112 
7000.0  5.0  0.0 0.06155 -0.01013 -0.00128 -0.00792 0.00076 0.00622 0.00186 -0.00046 -0.00176 -0.00165 -0.00123 -0.00035 -0.00012 -0.00598 0.00475 -0.00042 
7250.0  5.0  0.0 0.04290 -0.01618 0.00015 -0.00493 0.00085 0.00490 0.00165 -0.00032 -0.00165 -0.00155 -0.00107 -0.00029 0.00000 -0.00500 0.00482 -0.00062 
7500.0  5.0  0.0 0.02741 -0.02125 0.00154 -0.00185 0.00082 0.00347 0.00135 -0.00029 -0.00145 -0.00133 -0.00086 -0.00019 0.00014 -0.00446 0.00420 0.00027 
7750.0  5.0  0.0 0.01505 -0.02508 0.00272 0.00105 0.00071 0.00197 0.00101 -0.00030 -0.00116 -0.00103 -0.00059 -0.00010 0.00028 -0.00243 0.00387 0.00025 
8000.0  5.0  0.0 0.00559 -0.02754 0.00359 0.00360 0.00058 0.00052 0.00065 -0.00030 -0.00081 -0.00065 -0.00030 0.00003 0.00043 -0.00195 0.00280 0.00030 
8250.0  5.0  0.0 -0.00140 -0.02881 0.00412 0.00566 0.00044 -0.00088 0.00031 -0.00025 -0.00039 -0.00020 0.00000 0.00015 0.00057 -0.00008 0.00196 0.00043 
8500.0  5.0  0.0 -0.00636 -0.02902 0.00432 0.00718 0.00028 -0.00217 0.00002 -0.00010 0.00010 0.00030 0.00032 0.00027 0.00067 0.00115 0.00134 0.00061 
8750.0  5.0  0.0 -0.00979 -0.02864 0.00416 0.00794 0.00010 -0.00331 -0.00021 0.00029 0.00072 0.00081 0.00061 0.00035 0.00071 0.00371 0.00091 0.00084 
9000.0  5.0  0.0 -0.01206 -0.02797 0.00360 0.00786 -0.00010 -0.00423 -0.00032 0.00086 0.00138 0.00125 0.00081 0.00039 0.00067 0.00456 0.00066 0.00113 
9250.0  5.0  0.0 -0.01399 -0.02789 0.00289 0.00775 -0.00025 -0.00474 -0.00033 0.00118 0.00172 0.00152 0.00092 0.00041 0.00062 0.00568 0.00158 0.00146 
9500.0  5.0  0.0 -0.01531 -0.02766 0.00207 0.00755 -0.00032 -0.00499 -0.00032 0.00131 0.00183 0.00164 0.00099 0.00041 0.00054 0.00704 0.00166 0.00084 
9750.0  5.0  0.0 -0.01601 -0.02704 0.00114 0.00711 -0.00038 -0.00512 -0.00025 0.00145 0.00187 0.00168 0.00099 0.00039 0.00045 0.00663 0.00088 0.00025 
10000.0  5.0  0.0 -0.01620 -0.02608 0.00020 0.00659 -0.00042 -0.00514 -0.00018 0.00153 0.00185 0.00166 0.00098 0.00037 0.00036 0.00641 0.00023 0.00069 
10250.0  5.0  0.0 -0.01604 -0.02494 -0.00073 0.00601 -0.00043 -0.00506 -0.00011 0.00158 0.00177 0.00159 0.00093 0.00034 0.00026 0.00639 0.00070 0.00017 
10500.0  5.0  0.0 -0.01566 -0.02372 -0.00164 0.00540 -0.00045 -0.00491 -0.00007 0.00159 0.00167 0.00150 0.00088 0.00032 0.00017 0.00653 0.00029 0.00068 
10750.0  5.0  0.0 -0.01507 -0.02241 -0.00249 0.00471 -0.00046 -0.00469 -0.00003 0.00156 0.00154 0.00137 0.00080 0.00027 0.00009 0.00484 -0.00002 0.00021 
11000.0  5.0  0.0 -0.01440 -0.02117 -0.00333 0.00395 -0.00045 -0.00440 -0.00000 0.00152 0.00141 0.00124 0.00073 0.00023 -0.00002 0.00529 -0.00022 0.00077 
11250.0  5.0  0.0 -0.01366 -0.01994 -0.00413 0.00314 -0.00045 -0.00407 0.00001 0.00145 0.00127 0.00110 0.00066 0.00018 -0.00011 0.00487 -0.00034 0.00035 
11500.0  5.0  0.0 -0.01291 -0.01879 -0.00491 0.00228 -0.00045 -0.00371 0.00002 0.00135 0.00111 0.00094 0.00059 0.00014 -0.00018 0.00458 -0.00136 0.00095 
11750.0  5.0  0.0 -0.01213 -0.01767 -0.00564 0.00140 -0.00046 -0.00335 -0.00000 0.00123 0.00095 0.00077 0.00051 0.00012 -0.00025 0.00341 -0.00131 -0.00043 
12000.0  5.0  0.0 -0.01137 -0.01664 -0.00632 0.00048 -0.00046 -0.00295 -0.00004 0.00110 0.00077 0.00059 0.00044 0.00007 -0.00029 0.00334 -0.00117 0.00022 
12250.0  5.0  0.0 -0.01066 -0.01565 -0.00697 -0.00043 -0.00045 -0.00257 -0.00008 0.00095 0.00060 0.00043 0.00037 0.00004 -0.00034 0.00238 -0.00097 -0.00013 
12500.0  5.0  0.0 -0.00996 -0.01473 -0.00755 -0.00131 -0.00045 -0.00218 -0.00012 0.00081 0.00043 0.00026 0.00031 0.00002 -0.00036 0.00151 -0.00169 -0.00045 
12750.0  5.0  0.0 -0.00934 -0.01387 -0.00808 -0.00215 -0.00046 -0.00181 -0.00016 0.00065 0.00029 0.00010 0.00025 -0.00001 -0.00038 0.00072 -0.00135 0.00024 
13000.0  5.0  0.0 -0.00875 -0.01304 -0.00853 -0.00292 -0.00046 -0.00145 -0.00021 0.00050 0.00013 -0.00006 0.00019 -0.00004 -0.00039 0.00002 -0.00195 -0.00006 
14000.0  5.0  0.0 -0.00705 -0.01020 -0.00968 -0.00529 -0.00047 -0.00025 -0.00040 -0.00002 -0.00039 -0.00058 0.00000 -0.00012 -0.00042 -0.00207 -0.00281 -0.00112 
15000.0  5.0  0.0 -0.00612 -0.00774 -0.00990 -0.00646 -0.00046 0.00063 -0.00054 -0.00044 -0.00076 -0.00096 -0.00011 -0.00018 -0.00045 -0.00319 -0.00393 -0.00102 
